digraph Tree {
node [shape=box, style="filled, rounded", color="black", fontname=helvetica] ;
edge [fontname=helvetica] ;
0 [label="petal length (cm) <= 2.45\ngini = 0.66\nsamples = 92\nvalue = [53, 56, 41]\nclass = versicolor", fillcolor="#f9fefb"] ;
1 [label="gini = 0.0\nsamples = 34\nvalue = [53, 0, 0]\nclass = setosa", fillcolor="#e58139"] ;
0 -> 1 [labeldistance=2.5, labelangle=45, headlabel="True"] ;
2 [label="petal width (cm) <= 1.75\ngini = 0.49\nsamples = 58\nvalue = [0, 56, 41]\nclass = versicolor", fillcolor="#caf8dd"] ;
0 -> 2 [labeldistance=2.5, labelangle=-45, headlabel="False"] ;
3 [label="sepal length (cm) <= 7.1\ngini = 0.1\nsamples = 31\nvalue = [0, 56, 3]\nclass = versicolor", fillcolor="#44e688"] ;
2 -> 3 ;
4 [label="petal width (cm) <= 1.35\ngini = 0.07\nsamples = 30\nvalue = [0, 56, 2]\nclass = versicolor", fillcolor="#40e686"] ;
3 -> 4 ;
5 [label="gini = 0.0\nsamples = 17\nvalue = [0, 35, 0]\nclass = versicolor", fillcolor="#39e581"] ;
4 -> 5 ;
6 [label="sepal length (cm) <= 6.2\ngini = 0.16\nsamples = 13\nvalue = [0, 21, 2]\nclass = versicolor", fillcolor="#4ce78d"] ;
4 -> 6 ;
7 [label="petal length (cm) <= 4.85\ngini = 0.32\nsamples = 7\nvalue = [0, 8, 2]\nclass = versicolor", fillcolor="#6aeca0"] ;
6 -> 7 ;
8 [label="gini = 0.0\nsamples = 5\nvalue = [0, 8, 0]\nclass = versicolor", fillcolor="#39e581"] ;
7 -> 8 ;
9 [label="gini = 0.0\nsamples = 2\nvalue = [0, 0, 2]\nclass = virginica", fillcolor="#8139e5"] ;
7 -> 9 ;
10 [label="gini = 0.0\nsamples = 6\nvalue = [0, 13, 0]\nclass = versicolor", fillcolor="#39e581"] ;
6 -> 10 ;
11 [label="gini = 0.0\nsamples = 1\nvalue = [0, 0, 1]\nclass = virginica", fillcolor="#8139e5"] ;
3 -> 11 ;
12 [label="gini = 0.0\nsamples = 27\nvalue = [0, 0, 38]\nclass = virginica", fillcolor="#8139e5"] ;
2 -> 12 ;
}